<?xml version="1.0"?>
<opencv_storage>
<verbotdereinfahrtdetector type_id="opencv-haar-classifier">
  <size>
    24 24</size>
  <stages>
    <_>
      <trees>
        <_>
          <_>
            <feature>
              <rects>
                <_>
                  0 0 16 12 -1.</_>
                <_>
                  0 3 16 6 2.</_></rects>
              <tilted>0</tilted></feature>
            <threshold>-0.1190408021211624</threshold>
            <left_val>1.</left_val>
            <right_val>-1.</right_val></_></_></trees>
      <stage_threshold>1.</stage_threshold>
      <parent>-1</parent>
      <next>-1</next></_>
    <_>
      <trees>
        <_>
          <_>
            <feature>
              <rects>
                <_>
                  7 3 10 18 -1.</_>
                <_>
                  7 9 10 6 3.</_></rects>
              <tilted>0</tilted></feature>
            <threshold>0.2721860110759735</threshold>
            <left_val>-1.</left_val>
            <right_val>1.</right_val></_></_></trees>
      <stage_threshold>1.</stage_threshold>
      <parent>0</parent>
      <next>-1</next></_>
    <_>
      <trees>
        <_>
          <_>
            <feature>
              <rects>
                <_>
                  0 0 24 10 -1.</_>
                <_>
                  6 0 12 10 2.</_></rects>
              <tilted>0</tilted></feature>
            <threshold>-0.1664212942123413</threshold>
            <left_val>1.</left_val>
            <right_val>-1.</right_val></_></_></trees>
      <stage_threshold>1.</stage_threshold>
      <parent>1</parent>
      <next>-1</next></_>
    <_>
      <trees>
        <_>
          <_>
            <feature>
              <rects>
                <_>
                  1 8 20 9 -1.</_>
                <_>
                  1 11 20 3 3.</_></rects>
              <tilted>0</tilted></feature>
            <threshold>0.2763378918170929</threshold>
            <left_val>-1.</left_val>
            <right_val>0.9058824777603149</right_val></_></_></trees>
      <stage_threshold>0.9058824777603149</stage_threshold>
      <parent>2</parent>
      <next>-1</next></_></stages></verbotdereinfahrtdetector>
</opencv_storage>
