<?xml version="1.0"?>
<opencv_storage>
<arbeitsstelledetector type_id="opencv-haar-classifier">
  <size>
    24 24</size>
  <stages>
    <_>
      <trees>
        <_>
          <_>
            <feature>
              <rects>
                <_>
                  3 3 18 5 -1.</_>
                <_>
                  9 3 6 5 3.</_></rects>
              <tilted>0</tilted></feature>
            <threshold>-0.1087172999978066</threshold>
            <left_val>0.9795917868614197</left_val>
            <right_val>-0.9600052833557129</right_val></_></_>
        <_>
          <_>
            <feature>
              <rects>
                <_>
                  8 0 8 12 -1.</_>
                <_>
                  8 3 8 6 2.</_></rects>
              <tilted>0</tilted></feature>
            <threshold>-0.0460034199059010</threshold>
            <left_val>0.9251474738121033</left_val>
            <right_val>-0.8898643851280212</right_val></_></_></trees>
      <stage_threshold>-0.0348578691482544</stage_threshold>
      <parent>-1</parent>
      <next>-1</next></_>
    <_>
      <trees>
        <_>
          <_>
            <feature>
              <rects>
                <_>
                  12 0 8 4 -1.</_>
                <_>
                  11 1 8 2 2.</_></rects>
              <tilted>1</tilted></feature>
            <threshold>-0.0245982501655817</threshold>
            <left_val>0.8799999952316284</left_val>
            <right_val>-0.8979641795158386</right_val></_></_>
        <_>
          <_>
            <feature>
              <rects>
                <_>
                  17 0 4 6 -1.</_>
                <_>
                  17 3 4 3 2.</_></rects>
              <tilted>0</tilted></feature>
            <threshold>2.6623890735208988e-003</threshold>
            <left_val>-0.6798005104064941</left_val>
            <right_val>0.6426255106925964</right_val></_></_>
        <_>
          <_>
            <feature>
              <rects>
                <_>
                  2 0 6 16 -1.</_>
                <_>
                  2 0 3 8 2.</_>
                <_>
                  5 8 3 8 2.</_></rects>
              <tilted>0</tilted></feature>
            <threshold>-0.0195233207195997</threshold>
            <left_val>0.8688423037528992</left_val>
            <right_val>-0.9316071867942810</right_val></_></_></trees>
      <stage_threshold>-0.7089223861694336</stage_threshold>
      <parent>0</parent>
      <next>-1</next></_>
    <_>
      <trees>
        <_>
          <_>
            <feature>
              <rects>
                <_>
                  12 6 7 3 -1.</_>
                <_>
                  11 7 7 1 3.</_></rects>
              <tilted>1</tilted></feature>
            <threshold>0.0131302000954747</threshold>
            <left_val>-0.7614681720733643</left_val>
            <right_val>0.9325894117355347</right_val></_></_>
        <_>
          <_>
            <feature>
              <rects>
                <_>
                  6 10 13 6 -1.</_>
                <_>
                  6 12 13 2 3.</_></rects>
              <tilted>0</tilted></feature>
            <threshold>-0.0193245802074671</threshold>
            <left_val>0.8056222200393677</left_val>
            <right_val>-0.7952600121498108</right_val></_></_>
        <_>
          <_>
            <feature>
              <rects>
                <_>
                  5 0 1 4 -1.</_>
                <_>
                  5 2 1 2 2.</_></rects>
              <tilted>0</tilted></feature>
            <threshold>2.3643819440621883e-004</threshold>
            <left_val>-1.</left_val>
            <right_val>0.6674889922142029</right_val></_></_></trees>
      <stage_threshold>-0.8892390727996826</stage_threshold>
      <parent>1</parent>
      <next>-1</next></_>
    <_>
      <trees>
        <_>
          <_>
            <feature>
              <rects>
                <_>
                  3 22 17 2 -1.</_>
                <_>
                  3 23 17 1 2.</_></rects>
              <tilted>0</tilted></feature>
            <threshold>0.0122348600998521</threshold>
            <left_val>-0.8252428770065308</left_val>
            <right_val>0.8947417736053467</right_val></_></_>
        <_>
          <_>
            <feature>
              <rects>
                <_>
                  6 10 12 8 -1.</_>
                <_>
                  6 14 12 4 2.</_></rects>
              <tilted>0</tilted></feature>
            <threshold>0.0121388500556350</threshold>
            <left_val>-0.9808192849159241</left_val>
            <right_val>0.6709306836128235</right_val></_></_></trees>
      <stage_threshold>-0.1543121933937073</stage_threshold>
      <parent>2</parent>
      <next>-1</next></_>
    <_>
      <trees>
        <_>
          <_>
            <feature>
              <rects>
                <_>
                  0 4 24 4 -1.</_>
                <_>
                  8 4 8 4 3.</_></rects>
              <tilted>0</tilted></feature>
            <threshold>-0.1239696964621544</threshold>
            <left_val>0.7592595815658569</left_val>
            <right_val>-0.9111161828041077</right_val></_></_>
        <_>
          <_>
            <feature>
              <rects>
                <_>
                  15 0 1 6 -1.</_>
                <_>
                  15 0 1 3 2.</_></rects>
              <tilted>1</tilted></feature>
            <threshold>0.0143303200602531</threshold>
            <left_val>-0.2125816047191620</left_val>
            <right_val>0.2774673998355866</right_val></_></_>
        <_>
          <_>
            <feature>
              <rects>
                <_>
                  9 0 6 1 -1.</_>
                <_>
                  9 0 3 1 2.</_></rects>
              <tilted>1</tilted></feature>
            <threshold>0.0158766396343708</threshold>
            <left_val>-0.7285020947456360</left_val>
            <right_val>0.7764046788215637</right_val></_></_></trees>
      <stage_threshold>-0.3472931087017059</stage_threshold>
      <parent>3</parent>
      <next>-1</next></_>
    <_>
      <trees>
        <_>
          <_>
            <feature>
              <rects>
                <_>
                  10 3 4 8 -1.</_>
                <_>
                  10 7 4 4 2.</_></rects>
              <tilted>0</tilted></feature>
            <threshold>0.0307703893631697</threshold>
            <left_val>-0.8787878155708313</left_val>
            <right_val>0.8787928223609924</right_val></_></_>
        <_>
          <_>
            <feature>
              <rects>
                <_>
                  0 22 24 2 -1.</_>
                <_>
                  0 23 24 1 2.</_></rects>
              <tilted>0</tilted></feature>
            <threshold>0.0170742291957140</threshold>
            <left_val>-0.7853881120681763</left_val>
            <right_val>0.7952641248703003</right_val></_></_>
        <_>
          <_>
            <feature>
              <rects>
                <_>
                  8 9 6 6 -1.</_>
                <_>
                  8 9 3 3 2.</_>
                <_>
                  11 12 3 3 2.</_></rects>
              <tilted>0</tilted></feature>
            <threshold>-0.0205513499677181</threshold>
            <left_val>0.9731488823890686</left_val>
            <right_val>-0.6899805068969727</right_val></_></_></trees>
      <stage_threshold>-0.7735043168067932</stage_threshold>
      <parent>4</parent>
      <next>-1</next></_>
    <_>
      <trees>
        <_>
          <_>
            <feature>
              <rects>
                <_>
                  9 7 6 3 -1.</_>
                <_>
                  11 7 2 3 3.</_></rects>
              <tilted>0</tilted></feature>
            <threshold>0.0152527596801519</threshold>
            <left_val>-0.7196264266967773</left_val>
            <right_val>0.8461585044860840</right_val></_></_>
        <_>
          <_>
            <feature>
              <rects>
                <_>
                  18 0 2 6 -1.</_>
                <_>
                  18 2 2 2 3.</_></rects>
              <tilted>0</tilted></feature>
            <threshold>-1.0005709482356906e-003</threshold>
            <left_val>-1.</left_val>
            <right_val>0.2698613107204437</right_val></_></_>
        <_>
          <_>
            <feature>
              <rects>
                <_>
                  4 0 2 6 -1.</_>
                <_>
                  4 2 2 2 3.</_></rects>
              <tilted>0</tilted></feature>
            <threshold>8.9257297804579139e-004</threshold>
            <left_val>0.5843154191970825</left_val>
            <right_val>-1.0000020265579224</right_val></_></_></trees>
      <stage_threshold>0.1345501989126205</stage_threshold>
      <parent>5</parent>
      <next>-1</next></_>
    <_>
      <trees>
        <_>
          <_>
            <feature>
              <rects>
                <_>
                  2 18 20 4 -1.</_>
                <_>
                  2 19 20 2 2.</_></rects>
              <tilted>0</tilted></feature>
            <threshold>0.0150132300332189</threshold>
            <left_val>-0.6695656776428223</left_val>
            <right_val>0.9277160167694092</right_val></_></_>
        <_>
          <_>
            <feature>
              <rects>
                <_>
                  5 11 16 4 -1.</_>
                <_>
                  5 12 16 2 2.</_></rects>
              <tilted>0</tilted></feature>
            <threshold>-2.9138668905943632e-003</threshold>
            <left_val>0.5962843894958496</left_val>
            <right_val>-0.9065166711807251</right_val></_></_>
        <_>
          <_>
            <feature>
              <rects>
                <_>
                  9 8 4 8 -1.</_>
                <_>
                  9 8 2 4 2.</_>
                <_>
                  11 12 2 4 2.</_></rects>
              <tilted>0</tilted></feature>
            <threshold>-0.0212636403739452</threshold>
            <left_val>0.9078912138938904</left_val>
            <right_val>-0.6517415046691895</right_val></_></_></trees>
      <stage_threshold>-0.7250227928161621</stage_threshold>
      <parent>6</parent>
      <next>-1</next></_>
    <_>
      <trees>
        <_>
          <_>
            <feature>
              <rects>
                <_>
                  8 17 8 2 -1.</_>
                <_>
                  10 17 4 2 2.</_></rects>
              <tilted>0</tilted></feature>
            <threshold>7.9886885359883308e-003</threshold>
            <left_val>-0.6822432279586792</left_val>
            <right_val>0.8022022247314453</right_val></_></_>
        <_>
          <_>
            <feature>
              <rects>
                <_>
                  0 3 24 14 -1.</_>
                <_>
                  6 3 12 14 2.</_></rects>
              <tilted>0</tilted></feature>
            <threshold>-0.1663313060998917</threshold>
            <left_val>0.6475480198860169</left_val>
            <right_val>-0.9652479290962219</right_val></_></_></trees>
      <stage_threshold>-0.1630456000566483</stage_threshold>
      <parent>7</parent>
      <next>-1</next></_>
    <_>
      <trees>
        <_>
          <_>
            <feature>
              <rects>
                <_>
                  1 0 16 4 -1.</_>
                <_>
                  1 0 8 2 2.</_>
                <_>
                  9 2 8 2 2.</_></rects>
              <tilted>0</tilted></feature>
            <threshold>-0.0155775602906942</threshold>
            <left_val>0.6315792798995972</left_val>
            <right_val>-0.8571475744247437</right_val></_></_>
        <_>
          <_>
            <feature>
              <rects>
                <_>
                  20 13 4 6 -1.</_>
                <_>
                  21 14 2 6 2.</_></rects>
              <tilted>1</tilted></feature>
            <threshold>2.9102358967065811e-003</threshold>
            <left_val>-0.6712549924850464</left_val>
            <right_val>0.3615784049034119</right_val></_></_>
        <_>
          <_>
            <feature>
              <rects>
                <_>
                  12 5 7 2 -1.</_>
                <_>
                  12 5 7 1 2.</_></rects>
              <tilted>1</tilted></feature>
            <threshold>-0.0176218207925558</threshold>
            <left_val>0.7732344269752502</left_val>
            <right_val>-0.7658894062042236</right_val></_></_></trees>
      <stage_threshold>-0.8055651187896729</stage_threshold>
      <parent>8</parent>
      <next>-1</next></_></stages></arbeitsstelledetector>
</opencv_storage>
